digraph Tree {
node [shape=box, style="filled, rounded", color="black", fontname=helvetica] ;
edge [fontname=helvetica] ;
0 [label="x5_2 <= 0.5\ngini = 0.5\nsamples = 100.0%\nvalue = [0.47, 0.53]\nclass = no disease", fillcolor="#399de51b"] ;
1 [label="x1_0 <= 0.5\n0.43\n51.1%\n[0.69, 0.31]\ndisease", fillcolor="#e581398e"] ;
0 -> 1 [labeldistance=2.5, labelangle=45, headlabel="True"] ;
2 [label="scale_age <= 0.32\n0.43\n20.6%\n[0.31, 0.69]\nno disease", fillcolor="#399de58e"] ;
1 -> 2 ;
3 [label="x2_1 <= 0.5\n0.24\n11.5%\n[0.14, 0.86]\nno disease", fillcolor="#399de5d7"] ;
2 -> 3 ;
4 [label="scale_age <= -0.55\n0.27\n9.2%\n[0.16, 0.84]\nno disease", fillcolor="#399de5cf"] ;
3 -> 4 ;
5 [label="0.44\n5.3%\n[0.33, 0.67]\nno disease", fillcolor="#399de57f"] ;
4 -> 5 ;
6 [label="0.0\n3.8%\n[0.0, 1.0]\nno disease", fillcolor="#399de5ff"] ;
4 -> 6 ;
7 [label="0.0\n2.3%\n[0.0, 1.0]\nno disease", fillcolor="#399de5ff"] ;
3 -> 7 ;
8 [label="scale_chol <= 0.08\n0.5\n9.2%\n[0.53, 0.47]\ndisease", fillcolor="#e581391c"] ;
2 -> 8 ;
9 [label="scale_age <= 0.75\n0.47\n6.9%\n[0.38, 0.62]\nno disease", fillcolor="#399de560"] ;
8 -> 9 ;
10 [label="0.44\n3.1%\n[0.67, 0.33]\ndisease", fillcolor="#e581397f"] ;
9 -> 10 ;
11 [label="0.24\n3.8%\n[0.14, 0.86]\nno disease", fillcolor="#399de5d4"] ;
9 -> 11 ;
12 [label="0.0\n2.3%\n[1.0, 0.0]\ndisease", fillcolor="#e58139ff"] ;
8 -> 12 ;
13 [label="x6_0 <= 0.5\n0.12\n30.5%\n[0.94, 0.06]\ndisease", fillcolor="#e58139ed"] ;
1 -> 13 ;
14 [label="x4_0 <= 0.5\n0.05\n19.1%\n[0.98, 0.02]\ndisease", fillcolor="#e58139f8"] ;
13 -> 14 ;
15 [label="x6_1 <= 0.5\n0.06\n15.3%\n[0.97, 0.03]\ndisease", fillcolor="#e58139f7"] ;
14 -> 15 ;
16 [label="0.0\n7.6%\n[1.0, 0.0]\ndisease", fillcolor="#e58139ff"] ;
15 -> 16 ;
17 [label="0.09\n7.6%\n[0.95, 0.05]\ndisease", fillcolor="#e58139f2"] ;
15 -> 17 ;
18 [label="0.0\n3.8%\n[1.0, 0.0]\ndisease", fillcolor="#e58139ff"] ;
14 -> 18 ;
19 [label="x4_0 <= 0.5\n0.24\n11.5%\n[0.86, 0.14]\ndisease", fillcolor="#e58139d7"] ;
13 -> 19 ;
20 [label="0.0\n7.6%\n[1.0, 0.0]\ndisease", fillcolor="#e58139ff"] ;
19 -> 20 ;
21 [label="x0_1 <= 0.5\n0.47\n3.8%\n[0.62, 0.38]\ndisease", fillcolor="#e5813966"] ;
19 -> 21 ;
22 [label="0.0\n1.5%\n[0.0, 1.0]\nno disease", fillcolor="#399de5ff"] ;
21 -> 22 ;
23 [label="0.0\n2.3%\n[1.0, 0.0]\ndisease", fillcolor="#e58139ff"] ;
21 -> 23 ;
24 [label="x6_0 <= 0.5\n0.39\n48.9%\n[0.27, 0.73]\nno disease", fillcolor="#399de5a1"] ;
0 -> 24 [labeldistance=2.5, labelangle=-45, headlabel="False"] ;
25 [label="x2_1 <= 0.5\n0.49\n20.6%\n[0.43, 0.57]\nno disease", fillcolor="#399de53b"] ;
24 -> 25 ;
26 [label="x7_3 <= 0.5\n0.5\n16.0%\n[0.5, 0.5]\ndisease", fillcolor="#e5813900"] ;
25 -> 26 ;
27 [label="scale_thalach <= 0.53\n0.46\n12.2%\n[0.36, 0.64]\nno disease", fillcolor="#399de570"] ;
26 -> 27 ;
28 [label="0.5\n9.9%\n[0.5, 0.5]\ndisease", fillcolor="#e5813900"] ;
27 -> 28 ;
29 [label="0.0\n2.3%\n[0.0, 1.0]\nno disease", fillcolor="#399de5ff"] ;
27 -> 29 ;
30 [label="scale_trestbps <= -1.13\n0.2\n3.8%\n[0.89, 0.11]\ndisease", fillcolor="#e58139df"] ;
26 -> 30 ;
31 [label="0.0\n0.8%\n[0.0, 1.0]\nno disease", fillcolor="#399de5ff"] ;
30 -> 31 ;
32 [label="0.0\n3.1%\n[1.0, 0.0]\ndisease", fillcolor="#e58139ff"] ;
30 -> 32 ;
33 [label="scale_thalach <= -0.45\n0.38\n4.6%\n[0.25, 0.75]\nno disease", fillcolor="#399de5aa"] ;
25 -> 33 ;
34 [label="x1_2 <= 0.5\n0.44\n1.5%\n[0.67, 0.33]\ndisease", fillcolor="#e581397f"] ;
33 -> 34 ;
35 [label="0.0\n0.8%\n[1.0, 0.0]\ndisease", fillcolor="#e58139ff"] ;
34 -> 35 ;
36 [label="0.0\n0.8%\n[0.0, 1.0]\nno disease", fillcolor="#399de5ff"] ;
34 -> 36 ;
37 [label="scale_chol <= -0.26\n0.2\n3.1%\n[0.11, 0.89]\nno disease", fillcolor="#399de5df"] ;
33 -> 37 ;
38 [label="0.0\n0.8%\n[1.0, 0.0]\ndisease", fillcolor="#e58139ff"] ;
37 -> 38 ;
39 [label="0.0\n2.3%\n[0.0, 1.0]\nno disease", fillcolor="#399de5ff"] ;
37 -> 39 ;
40 [label="scale_chol <= 1.86\n0.26\n28.2%\n[0.15, 0.85]\nno disease", fillcolor="#399de5d1"] ;
24 -> 40 ;
41 [label="scale_thalach <= -0.16\n0.18\n26.7%\n[0.1, 0.9]\nno disease", fillcolor="#399de5e2"] ;
40 -> 41 ;
42 [label="scale_chol <= 0.08\n0.5\n5.3%\n[0.5, 0.5]\ndisease", fillcolor="#e5813900"] ;
41 -> 42 ;
43 [label="0.0\n3.1%\n[0.0, 1.0]\nno disease", fillcolor="#399de5ff"] ;
42 -> 43 ;
44 [label="0.0\n2.3%\n[1.0, 0.0]\ndisease", fillcolor="#e58139ff"] ;
42 -> 44 ;
45 [label="x1_2 <= 0.5\n0.04\n21.4%\n[0.02, 0.98]\nno disease", fillcolor="#399de5fa"] ;
41 -> 45 ;
46 [label="0.0\n13.0%\n[0.0, 1.0]\nno disease", fillcolor="#399de5ff"] ;
45 -> 46 ;
47 [label="0.1\n8.4%\n[0.06, 0.94]\nno disease", fillcolor="#399de5f0"] ;
45 -> 47 ;
48 [label="scale_age <= 0.59\n0.44\n1.5%\n[0.67, 0.33]\ndisease", fillcolor="#e581397f"] ;
40 -> 48 ;
49 [label="0.0\n0.8%\n[0.0, 1.0]\nno disease", fillcolor="#399de5ff"] ;
48 -> 49 ;
50 [label="0.0\n0.8%\n[1.0, 0.0]\ndisease", fillcolor="#e58139ff"] ;
48 -> 50 ;
}